{"weights":[0.49264002,-0.57036424,0.2990036,-0.6971617,0.36421967,0.26675963,0.6356931,0.8838527,0.63033724,-0.53881574,-0.06629801,-0.30097508,-0.32713437,-0.7260566,-0.7816007,0.7757778,-0.30962396,0.8501141,-0.29779473,0.46559668,0.71908,0.8848448,0.9243581,-0.68111825,0.9085815,-0.15636325,-0.5952697,0.8597224,-0.41366744,0.31974363,0.94178915,0.2553103,-0.22604084,-0.123838425,0.88343453,0.24333672,0.16894174,-0.9245162,0.21039248,-0.23833776,0.9577894,0.6261854,0.48588228,0.7261398,-0.80215645,0.78336024,0.80156326,-0.96788573,0.982527,-0.30637598,0.9211917,0.48442245,-0.9996178,-0.3897369,-0.19818044,-0.5502732,0.1134963,0.1684022,-1.0391773,0.4100592,0.627517,0.60973096,0.29691005,0.6020353,0.5463228,0.20711231,0.9609144,-0.45495582,0.5664818,-0.5706977,0.30514145,-0.21529508],"biases":[0.78772664,0.8556185,-0.7244277,-0.21190882,0.25023484,-0.2836423,0.87543035,-0.40692258,-0.53440595,-0.28047824,-0.6130426,0.90140104,0.57093704,-0.533664],"topology":[4,8,4,2],"activation":"sigmoid","generation":1,"mutation_rate":0.1,"fitness_scores":[]}